svm_type c_svc
kernel_type linear
nr_class 2
total_sv 73
rho 0.983893
label 1 -1
nr_sv 19 54
SV
0.02833965303133968 1:4 2:4 3:3 4:3 5:1 6:2 7:1 8:2 9:2 11:2 13:5 14:3 19:1 25:1 26:1 27:2 28:1 29:1 30:1 34:1 36:2 37:1 40:1 41:3 43:2 44:2 49:1 51:2 54:1 57:1 59:2 61:1 66:1 69:1 85:1 87:4 98:1 101:1 112:1 138:1 144:1 148:1 149:1 157:1 186:1 193:2 250:1 294:1 325:1 333:1 377:1 431:1 499:1 511:2 544:1 596:1 656:1 685:1 759:1 799:1 887:1 900:1 911:1 976:1 
0.01784945443575136 1:6 2:5 3:9 4:5 5:4 6:4 7:2 8:1 9:2 10:3 11:2 12:3 13:1 14:1 16:2 17:1 19:3 21:1 22:2 23:3 24:2 25:1 26:3 27:1 28:2 31:1 32:1 34:1 35:1 37:1 38:1 47:1 49:1 50:1 53:3 55:3 56:1 66:4 67:1 72:2 73:1 75:1 76:2 77:1 78:1 81:1 84:2 90:1 91:1 95:2 96:1 101:1 103:1 116:1 119:1 122:1 124:1 127:2 130:1 132:1 133:1 136:2 138:1 141:1 143:1 146:2 150:1 160:1 189:3 229:1 238:1 256:1 275:1 329:3 331:1 467:1 499:1 515:1 657:1 705:1 771:1 811:1 928:2 
0.02816825839319827 1:3 2:3 3:6 4:1 5:2 6:3 8:3 10:1 11:1 12:1 13:2 15:3 16:2 18:2 22:2 29:1 32:1 33:1 34:1 37:2 42:2 56:1 73:1 80:1 96:1 103:1 107:2 109:2 115:1 139:2 143:1 203:1 234:1 272:1 299:1 315:2 457:1 478:1 480:1 499:1 516:2 534:2 586:3 634:1 792:1 846:1 870:1 
0.009634343977853621 1:4 2:1 4:8 5:2 6:4 7:1 8:2 10:1 11:1 18:2 25:1 26:1 28:3 33:2 34:1 35:1 46:1 51:3 52:3 56:1 66:1 80:1 99:2 132:1 133:1 139:3 141:2 194:2 209:2 231:2 282:2 289:2 310:2 459:1 499:1 566:1 596:1 607:1 622:1 686:2 691:2 700:2 737:1 802:1 846:1 
0.005475618197312761 1:9 2:7 3:6 4:13 5:4 7:4 8:1 10:2 11:1 12:4 13:5 14:2 15:2 16:8 18:3 19:1 20:4 22:1 24:1 27:5 29:1 32:2 34:3 35:2 36:2 37:1 39:1 40:1 42:2 43:1 46:2 58:1 59:2 60:1 61:1 62:2 67:2 76:1 80:1 81:1 91:1 92:1 93:2 99:1 101:2 106:1 119:2 120:1 121:1 122:1 124:1 125:1 128:2 134:1 137:1 146:1 154:2 164:1 169:1 198:1 206:2 221:1 224:1 234:1 244:1 245:1 256:2 269:2 274:1 282:1 291:2 303:1 309:2 312:1 314:5 326:2 340:1 353:1 359:1 395:1 403:1 457:1 459:2 462:2 463:4 479:2 499:1 532:2 537:1 585:1 601:1 602:2 610:1 655:1 693:2 733:1 742:1 755:1 836:4 893:1 970:1 974:1 984:1 
0.009090595572056642 1:5 2:7 3:8 4:10 6:5 7:1 8:3 9:2 10:6 11:3 12:1 13:4 14:6 15:9 16:1 17:1 18:2 19:4 20:3 21:3 22:9 26:3 29:1 31:2 34:1 37:1 38:2 39:2 41:1 42:1 43:1 46:1 48:1 50:2 53:2 54:1 58:1 59:1 62:1 63:1 69:1 73:1 80:1 96:1 100:3 101:1 117:1 124:1 134:1 135:1 138:1 140:2 141:1 143:1 146:1 151:1 152:1 153:1 156:1 158:1 159:1 169:1 186:1 191:1 200:1 203:1 217:2 225:1 235:1 240:1 259:1 290:1 299:1 311:1 319:1 322:1 335:1 337:4 363:2 474:1 499:1 565:1 568:1 577:3 625:1 679:1 684:1 731:1 855:1 857:1 892:1 
0.006260953955583146 1:7 2:14 3:6 4:5 5:1 6:3 7:1 8:1 10:5 11:3 12:1 13:4 14:2 15:12 16:4 18:1 19:1 20:3 21:2 22:4 23:2 24:1 25:3 26:1 27:2 29:1 30:5 31:3 34:1 35:2 40:4 41:1 43:1 45:1 46:2 49:1 53:1 58:2 59:3 60:1 62:1 65:1 72:1 73:1 76:1 79:1 82:1 84:1 87:1 90:3 94:2 97:1 102:1 109:1 112:1 115:1 126:1 130:2 137:1 140:2 143:1 153:2 161:2 169:1 172:1 176:1 177:1 186:1 187:2 188:1 190:1 192:1 213:1 225:1 238:1 242:2 260:6 264:2 287:1 314:1 315:1 319:3 322:2 332:1 335:1 416:1 435:3 440:1 496:1 499:1 515:1 548:1 660:1 665:2 773:1 775:1 780:1 825:1 888:1 949:2 
0.02393995627320307 1:4 2:7 3:4 4:2 5:4 6:1 7:3 8:2 9:1 10:2 11:2 12:1 13:1 14:4 17:6 19:1 21:2 23:2 24:1 25:1 29:1 33:3 34:1 36:1 37:2 39:2 40:2 45:1 47:3 49:2 58:1 60:1 66:1 74:2 90:1 91:1 105:1 118:1 123:1 124:1 126:1 129:1 130:1 138:1 174:1 186:1 213:1 220:2 249:1 259:1 281:1 282:1 285:2 314:1 318:2 342:1 397:1 415:1 429:2 499:1 601:1 694:1 
0.009975044957355491 1:7 2:4 3:5 4:5 5:7 6:1 7:2 10:1 11:1 13:1 14:1 16:2 17:6 18:2 20:2 26:1 29:1 31:1 33:1 34:1 36:1 41:1 45:1 53:1 54:1 56:1 57:1 59:1 60:1 65:1 66:1 85:1 90:1 95:1 97:1 102:1 103:1 113:1 138:1 143:1 164:2 166:2 189:2 190:1 241:1 249:1 276:1 315:1 382:2 417:1 426:1 473:2 499:1 588:1 675:2 683:1 719:1 757:1 788:1 823:2 927:1 989:2 
0.01080439821570154 1:4 2:1 3:4 4:6 5:4 6:1 7:1 8:2 9:1 10:1 11:2 14:1 15:1 18:1 19:1 21:2 23:1 27:1 28:3 29:1 30:1 31:1 33:1 34:1 35:1 37:1 52:2 55:1 56:1 58:3 60:1 65:1 75:1 81:1 82:1 95:1 96:1 99:3 105:1 107:1 121:1 133:1 137:1 161:1 177:1 186:1 202:1 203:1 229:2 230:2 238:1 249:1 250:1 317:1 325:1 327:1 333:1 388:2 499:1 576:1 632:1 644:1 782:3 786:1 791:1 905:3 
0.006064401920830333 1:4 2:5 3:9 4:3 5:1 7:4 9:2 12:1 13:1 17:4 18:2 19:1 25:2 28:3 29:2 30:2 34:1 49:1 52:3 53:2 60:1 63:1 102:1 105:1 116:3 119:1 133:3 159:1 176:1 277:2 301:1 376:2 457:2 499:1 610:2 618:1 646:2 692:2 738:2 769:2 784:2 924:3 967:2 984:1 
0.01808944078917032 1:4 2:5 3:4 4:2 5:2 6:6 7:3 8:1 9:2 10:1 11:2 12:3 13:1 15:2 16:1 17:4 19:1 21:1 22:1 23:1 24:3 28:2 29:2 30:1 32:1 33:1 34:1 35:1 38:1 42:1 56:1 60:1 69:1 73:1 75:1 77:1 94:3 95:1 107:1 118:1 131:1 136:2 139:1 144:1 150:1 151:1 180:1 241:1 290:2 315:1 326:2 335:1 359:1 379:2 440:1 474:2 477:4 499:1 614:1 670:2 710:1 736:2 980:1 
0.01475303697395049 1:1 2:6 3:1 4:3 5:4 7:2 11:1 12:2 13:2 15:1 20:1 21:3 28:1 30:2 34:1 36:1 45:1 46:1 48:2 52:3 57:1 60:1 68:1 76:2 77:3 82:2 111:3 125:1 137:2 153:1 157:1 186:1 205:2 277:3 312:1 349:2 374:2 454:2 499:1 606:1 734:1 
0.02797256951905058 1:4 3:1 4:1 5:4 6:1 7:3 8:1 9:1 11:1 12:2 15:1 25:1 28:2 34:1 43:1 52:3 88:2 92:2 184:2 202:2 228:1 229:1 262:2 286:2 312:2 361:2 499:1 662:2 792:2 802:1 824:2 861:1 930:2 
0.02077190389619523 1:2 2:7 3:3 4:1 5:3 6:1 12:1 17:1 21:1 28:1 30:1 34:1 45:1 52:1 56:1 66:2 70:1 80:1 88:1 111:2 116:1 137:1 180:1 186:1 189:2 266:1 325:2 390:1 499:1 644:3 786:2 910:1 
0.01276710919078118 1:9 2:8 3:4 4:8 5:1 6:3 7:2 8:1 11:4 12:1 13:1 15:3 16:2 17:2 20:2 21:3 25:5 26:1 27:6 29:2 30:1 31:4 34:1 41:2 43:1 48:1 50:2 54:1 60:1 61:1 64:2 69:2 75:2 80:2 81:1 86:2 90:1 91:3 95:2 109:2 122:1 125:1 138:1 143:1 189:1 193:1 235:1 243:1 269:1 286:3 303:2 322:1 327:1 328:1 332:1 333:1 385:1 396:2 417:2 479:1 499:1 515:2 528:2 569:2 576:1 631:1 638:2 684:1 711:2 881:1 970:1 977:1 
0.01103014760813904 1:2 2:3 3:3 4:7 5:2 6:2 7:1 8:1 9:1 11:1 13:1 15:6 16:1 18:2 21:1 22:2 26:1 33:2 34:1 43:1 44:1 50:1 51:1 57:4 63:1 69:1 72:2 76:2 81:3 82:1 97:3 115:1 131:1 134:1 140:1 150:1 151:1 157:2 158:1 165:1 176:1 206:1 208:1 217:1 266:1 275:2 317:1 410:2 466:2 499:1 604:2 676:2 694:2 733:1 758:2 779:1 851:2 920:2 985:2 
0.01982659486848177 1:5 2:4 3:2 4:2 5:8 7:2 8:1 9:2 14:1 17:1 20:1 25:1 28:1 33:2 34:1 52:2 66:1 70:2 72:2 76:1 78:3 79:1 127:2 166:1 229:1 291:1 299:1 440:1 445:2 499:1 542:2 545:2 575:2 726:2 775:1 916:2 
0.007853173698352428 1:17 2:8 3:4 4:8 5:2 6:4 7:5 8:3 9:2 10:5 11:3 12:3 13:1 14:3 15:1 17:2 18:3 21:1 22:2 23:1 26:1 27:2 28:2 29:3 31:2 34:1 35:1 40:1 46:1 47:3 51:1 52:2 53:2 54:1 56:2 60:1 64:1 66:1 74:1 76:1 79:2 80:2 84:1 87:2 92:1 95:1 96:1 99:1 100:3 116:1 138:1 139:4 141:1 158:1 177:1 187:1 190:1 194:3 218:1 229:1 231:2 245:1 282:4 289:2 310:2 311:2 314:1 342:1 359:1 408:2 432:1 499:1 502:1 566:1 594:1 607:1 745:1 802:1 845:1 861:1 983:1 
-0.00777295723107667 1:5 2:4 3:6 4:3 5:1 6:3 7:1 10:2 13:1 15:6 16:1 19:2 20:1 21:1 22:3 25:1 28:2 29:2 31:3 34:1 35:1 36:2 37:1 40:1 41:1 46:3 49:3 51:1 59:1 60:2 62:1 63:1 70:2 83:1 94:1 95:1 96:1 99:1 111:1 114:2 115:1 120:1 121:1 126:2 132:1 134:1 136:1 146:1 158:1 162:4 168:3 174:1 175:2 179:3 184:2 186:1 240:1 242:1 259:1 281:1 295:1 316:2 319:1 320:2 424:2 489:1 499:1 566:1 605:2 665:1 792:1 844:1 848:2 974:1 
-0.002058806656205137 1:7 2:5 3:1 4:3 7:2 8:2 9:1 10:2 11:4 13:2 14:2 15:1 20:1 21:1 22:1 23:3 25:2 27:2 29:1 30:1 33:4 34:1 36:1 40:1 41:2 44:2 45:1 47:1 51:1 62:1 69:1 72:2 75:1 76:1 89:1 91:1 93:1 98:1 108:1 123:2 137:1 151:1 164:2 176:1 192:1 208:1 256:1 390:1 398:3 467:1 499:1 568:1 736:1 789:1 863:2 922:1 950:1 
-0.005458731912406215 1:8 2:4 3:2 4:7 5:7 6:6 7:1 8:1 9:2 10:1 12:2 14:1 15:1 19:1 22:1 24:1 28:1 29:1 30:1 32:2 33:1 34:1 40:1 47:1 62:1 66:3 70:1 73:2 76:2 96:1 123:1 138:1 144:1 151:1 154:1 160:1 165:1 173:3 186:1 190:1 195:1 220:1 228:2 236:1 274:1 293:2 333:1 348:2 496:1 499:1 588:1 625:1 660:1 709:3 715:1 876:3 956:2 
-0.009004373533659956 1:2 2:2 3:3 4:1 6:2 9:2 12:2 14:1 15:3 16:2 19:1 20:1 25:1 31:1 34:1 49:1 54:1 60:1 71:1 72:1 76:1 87:2 96:1 140:2 266:2 276:1 335:1 355:2 492:2 499:1 549:1 682:2 822:2 887:2 932:2 964:2 969:2 
-0.007582295285982813 1:4 2:5 3:6 4:4 5:3 6:1 7:1 8:2 9:2 10:1 11:1 12:2 13:1 16:1 17:1 19:1 21:1 23:2 25:3 28:1 30:1 34:1 37:1 38:2 43:1 44:1 47:3 49:1 50:1 53:1 60:1 63:1 78:1 92:2 101:1 125:1 132:1 143:1 186:1 220:1 237:1 263:1 279:2 295:1 328:1 456:2 482:1 494:1 499:1 636:2 728:2 756:2 820:1 855:1 893:1 
-0.001466209112122816 1:4 2:4 3:1 4:5 5:3 7:4 9:3 12:3 13:3 16:1 19:1 20:2 26:2 27:2 29:1 32:1 34:1 36:1 39:1 45:1 48:1 49:1 50:1 57:1 68:4 73:1 81:2 82:1 86:1 101:3 110:1 131:1 170:2 176:1 177:1 190:1 195:1 249:1 291:1 303:1 309:1 327:1 416:2 442:3 499:2 520:4 601:1 651:2 679:1 701:1 721:5 772:2 775:1 788:1 802:1 852:1 861:4 864:3 879:2 
-0.003279251077561622 1:9 2:14 3:1 4:3 5:1 6:5 7:1 9:5 10:3 12:1 13:2 15:4 16:1 18:4 21:1 22:2 30:1 33:2 34:1 35:1 36:1 43:1 54:1 66:1 69:2 72:1 76:1 85:1 90:1 95:1 99:1 102:1 132:1 157:2 163:1 166:1 186:1 208:1 243:1 263:1 266:1 268:1 292:2 300:2 301:3 303:1 313:1 319:1 323:2 352:4 413:2 430:1 499:1 588:2 673:1 683:2 687:3 699:2 737:1 742:1 752:2 877:1 881:1 
-0.002872799805240499 1:3 2:7 4:10 6:2 7:2 8:3 12:2 14:1 16:6 18:1 19:1 20:1 24:1 26:2 27:2 29:2 32:3 34:1 35:2 36:1 37:2 42:1 43:1 45:2 59:1 63:1 64:2 75:1 83:1 90:1 93:1 94:1 99:1 103:1 113:1 117:1 124:2 138:1 146:1 203:1 236:2 272:1 284:1 306:2 307:2 423:2 449:2 489:1 499:1 505:2 523:3 602:1 612:1 616:1 634:1 679:1 734:1 770:1 791:2 984:1 
-0.006238518960941085 1:5 2:9 4:3 5:1 6:1 7:1 9:1 10:1 13:1 15:8 18:1 20:1 21:1 22:1 25:1 30:1 34:1 36:1 39:1 44:1 50:1 51:1 53:2 54:1 55:1 75:2 81:1 90:1 94:1 101:2 116:2 130:1 133:1 143:1 151:2 158:1 159:2 173:1 185:2 187:1 203:1 217:1 220:1 227:2 242:1 246:3 303:1 478:1 494:1 499:1 504:1 515:1 632:1 735:2 771:1 802:1 911:1 976:1 
-0.003299526200373121 1:7 2:3 3:3 5:2 8:1 14:1 17:3 20:2 25:1 28:1 33:1 34:1 40:1 60:2 66:1 96:1 116:1 123:1 126:1 143:1 157:1 165:1 223:1 257:1 287:1 334:2 335:1 390:1 499:1 538:3 599:2 732:2 789:1 790:1 852:1 857:1 927:1 
-0.004673761087191782 1:5 2:4 3:6 4:2 5:3 6:1 7:2 8:2 9:1 10:1 11:1 12:1 14:2 15:3 16:1 25:3 28:1 31:1 34:1 36:2 46:1 49:3 55:1 63:1 66:1 70:2 72:1 76:1 96:1 101:1 102:2 114:2 116:1 126:1 136:1 149:1 155:1 162:2 168:2 175:1 179:2 186:1 187:3 213:1 269:1 404:1 489:1 499:1 532:1 576:1 632:1 849:2 983:2 
-0.007561009314252181 1:5 2:6 3:4 5:3 6:4 12:3 17:1 21:5 28:1 34:1 45:1 48:2 50:2 55:1 56:1 57:2 60:1 67:2 70:1 73:1 77:2 96:1 97:4 101:1 111:2 137:1 141:1 150:1 161:2 174:2 186:1 250:1 256:1 283:2 301:1 324:2 341:2 427:2 497:1 499:1 563:2 806:2 899:3 913:1 
-0.009488531157232765 1:3 3:2 4:6 7:1 8:1 11:2 13:2 14:1 19:1 20:2 21:1 26:3 27:6 32:1 33:2 34:2 37:1 39:1 41:1 43:1 44:3 45:1 50:1 51:1 67:1 81:2 83:1 99:1 107:1 117:3 125:1 128:1 131:2 166:1 220:1 227:1 252:1 266:1 281:1 494:1 499:1 592:1 754:1 806:1 
-0.0008549856579038734 1:10 2:7 3:3 4:5 6:2 7:5 8:5 10:3 11:5 12:2 13:3 14:2 16:5 19:1 20:6 21:3 26:5 27:2 29:1 32:2 34:1 35:1 36:1 38:3 39:1 41:2 42:1 43:7 51:1 53:1 54:1 65:2 71:1 72:2 75:2 79:1 81:1 82:1 86:1 91:1 93:1 96:1 98:3 99:1 102:1 103:3 108:1 112:2 121:1 122:2 126:1 128:1 138:1 139:1 142:1 144:2 146:1 176:2 193:1 217:2 224:3 234:1 242:1 250:2 268:2 272:1 278:1 281:1 319:2 328:3 333:1 335:1 336:1 366:3 393:2 467:2 489:1 499:1 554:1 610:1 719:1 725:2 754:2 896:1 968:1 
-0.001243186344274514 1:8 2:5 3:5 4:4 5:1 7:1 8:1 9:2 10:1 12:1 13:5 14:1 19:1 23:2 25:1 26:1 27:1 30:3 31:3 34:1 35:1 37:1 41:1 44:2 48:1 49:2 50:1 51:1 58:2 61:1 68:1 82:3 108:1 109:1 143:1 144:1 146:1 148:1 159:1 169:1 172:1 175:1 186:1 192:2 203:1 223:1 238:1 295:1 331:1 438:2 499:1 583:1 677:1 837:1 
-0.003918224031796256 1:9 2:9 3:2 4:4 5:6 6:6 7:2 8:3 10:2 11:5 12:1 13:1 16:6 17:5 18:2 23:2 24:1 25:1 27:1 28:1 29:1 31:1 34:1 36:2 41:1 46:1 49:2 51:3 54:2 55:2 58:1 61:2 63:2 77:2 80:1 82:1 83:1 84:3 87:1 94:1 97:1 106:1 107:1 112:2 122:1 149:1 161:1 167:1 172:1 177:1 188:1 190:3 192:1 201:1 223:1 233:1 234:1 247:2 274:1 321:2 335:2 336:1 359:1 405:2 467:1 486:2 497:2 499:1 539:2 585:1 652:1 822:1 895:1 908:4 914:2 956:1 962:2 979:2 
-0.004798431338367503 1:3 2:5 3:3 4:1 5:1 7:3 10:2 14:1 15:1 18:1 22:2 24:2 25:1 29:1 34:1 43:1 45:3 57:1 78:2 200:1 202:1 203:1 215:1 499:1 596:1 681:1 727:2 857:1 860:1 927:1 963:3 
-0.0005174090085403787 1:17 2:11 3:7 4:5 5:4 6:1 7:6 8:3 9:2 10:3 11:7 12:4 13:3 14:8 15:2 16:11 17:1 18:1 19:4 20:2 21:4 22:3 24:3 25:1 29:1 30:1 33:1 34:1 35:2 36:2 37:2 38:12 40:7 41:2 43:5 46:1 48:1 49:2 51:2 52:1 53:1 54:1 55:2 59:1 63:1 72:1 76:1 82:1 87:1 89:2 90:2 99:1 101:1 102:1 103:1 118:2 123:1 130:2 132:1 135:1 142:1 144:1 151:1 153:1 154:1 161:1 165:1 169:1 182:1 190:1 192:1 193:1 199:1 202:1 207:1 213:1 214:1 225:1 249:1 278:2 288:8 304:2 315:1 327:2 333:2 401:2 422:1 436:2 482:3 496:1 499:1 562:1 566:1 588:1 601:1 632:1 686:1 703:2 729:1 778:4 815:2 825:1 839:1 870:3 881:1 893:1 946:2 970:2 972:2 980:1 
-0.002956454553294576 1:9 2:2 3:2 4:4 5:3 6:1 8:3 10:6 11:4 12:2 13:3 15:1 17:1 18:1 19:2 24:1 25:1 26:3 28:1 34:1 35:2 37:1 39:1 42:1 44:1 49:1 50:1 54:1 59:3 61:1 69:3 81:3 82:1 83:1 86:3 88:1 95:1 107:2 122:3 124:1 128:1 133:1 136:1 148:1 149:2 169:2 180:1 221:2 225:1 236:2 242:1 312:1 369:2 499:1 514:2 592:2 756:1 830:1 874:1 
-0.003542710339392191 1:18 2:19 3:12 4:11 5:7 6:6 7:1 8:2 9:2 10:2 11:3 12:2 13:7 17:3 18:1 19:1 20:2 21:1 23:1 24:2 25:4 26:1 28:2 29:6 31:1 32:1 34:1 36:1 37:1 38:19 39:2 41:3 42:1 44:2 46:1 48:3 50:1 55:1 61:1 63:1 66:1 69:1 73:3 74:2 75:2 82:1 87:1 89:1 90:2 91:1 93:3 94:1 95:1 99:1 105:1 106:1 109:2 123:1 126:1 130:4 131:2 133:1 141:2 149:1 150:2 153:1 158:1 165:2 166:1 172:1 176:1 180:1 186:1 217:1 223:1 224:1 243:2 245:1 249:1 250:1 272:1 311:2 314:1 315:1 319:1 326:1 333:1 487:1 499:1 574:2 601:1 632:1 685:1 742:1 788:2 796:4 797:2 802:1 803:2 810:1 820:1 822:1 839:1 862:4 896:1 918:2 926:2 942:2 956:1 987:1 
-0.005542236215646642 1:6 2:11 3:3 4:4 5:7 6:4 7:4 9:5 11:2 12:1 13:1 14:4 16:1 17:1 18:1 19:2 20:1 21:4 23:1 24:2 25:1 26:2 27:3 29:1 30:2 32:2 33:2 34:2 35:4 37:3 41:1 43:1 44:1 46:1 47:1 49:1 51:1 56:2 61:1 67:3 77:3 85:2 92:1 93:2 94:1 99:1 103:1 117:1 122:1 130:1 138:1 146:1 165:1 169:1 177:1 200:1 217:1 232:1 238:1 287:1 301:1 324:4 327:1 339:1 427:1 467:1 489:1 499:1 830:1 846:1 860:2 896:2 911:1 913:2 977:2 984:1 988:1 
-0.001543629245881336 1:5 2:6 3:5 4:4 5:2 6:4 7:3 8:2 9:3 10:1 11:3 12:1 13:3 14:1 17:1 23:1 24:2 28:1 29:1 30:1 31:1 32:1 34:1 40:2 48:3 51:1 54:1 58:2 59:1 62:1 63:1 65:1 71:2 82:1 83:2 94:1 101:1 121:1 123:1 142:2 143:1 146:1 150:1 151:1 163:1 173:2 185:3 186:1 195:1 198:1 203:1 215:1 217:1 242:1 256:1 303:1 368:1 390:1 425:2 490:1 491:2 499:1 566:1 700:1 748:2 824:1 945:2 956:1 
-0.005268570144829777 1:10 2:8 3:5 4:6 5:3 6:6 7:1 8:3 9:2 10:1 11:1 12:1 13:3 14:1 15:5 19:2 20:1 21:1 22:4 25:1 26:1 31:1 32:2 34:1 35:3 44:1 47:1 57:2 62:1 66:1 69:1 80:1 85:1 109:1 117:1 120:1 128:3 130:1 133:1 138:2 153:1 188:1 203:1 208:2 235:1 236:1 242:1 245:2 282:1 353:1 382:1 395:2 416:1 499:1 522:1 585:1 634:1 667:1 745:2 767:2 775:2 806:1 825:2 876:1 884:4 968:2 
-0.007768245579120393 1:2 2:7 3:4 4:7 5:4 6:2 7:3 8:3 10:3 11:5 12:1 14:4 15:2 18:2 19:1 22:4 24:1 25:2 27:1 29:1 34:1 36:1 37:1 45:4 46:1 54:1 55:3 58:1 61:1 64:1 75:1 78:1 91:1 96:1 106:2 109:1 112:1 119:1 125:3 129:1 132:2 134:1 138:1 174:1 176:1 177:1 235:1 240:1 249:2 306:1 313:2 314:1 335:2 385:1 499:1 536:2 596:1 628:1 649:4 654:3 708:1 749:1 861:1 877:3 886:2 889:1 917:4 976:1 980:1 
-0.01785374505221463 1:1 2:4 3:3 4:1 5:6 6:1 7:1 9:3 12:1 14:1 17:1 18:1 21:1 27:1 28:1 30:1 34:1 44:1 45:1 53:3 57:2 68:1 73:1 80:3 95:1 112:1 115:1 124:1 129:1 170:2 174:1 176:1 198:1 205:3 213:1 252:1 277:1 359:1 472:2 480:1 499:1 606:3 737:1 780:1 861:1 895:1 898:1 940:3 
-0.001000926520638181 1:7 2:6 3:4 4:7 5:4 6:2 8:1 11:2 14:3 15:1 16:1 17:1 18:2 19:1 20:1 22:2 23:2 24:1 26:3 29:1 31:1 34:1 37:2 38:1 39:2 40:1 41:1 42:4 44:1 46:1 47:1 49:1 54:1 55:1 59:2 61:1 67:1 68:1 85:1 86:2 90:1 91:1 96:1 119:1 123:2 130:1 132:1 146:1 147:1 156:1 161:1 167:1 169:1 176:1 183:1 192:2 199:2 215:2 216:2 225:2 234:1 240:1 241:3 250:2 268:2 272:2 281:3 291:1 331:2 344:3 367:2 380:2 412:1 426:1 478:1 499:1 595:2 601:1 619:2 643:1 659:3 757:3 828:1 830:1 895:1 919:2 944:1 951:5 984:1 
-0.0004012481765825416 1:11 2:8 3:3 4:7 5:5 6:2 7:2 8:4 9:4 10:1 11:4 12:2 13:2 14:4 17:3 18:1 19:2 20:1 21:2 23:4 24:1 25:1 27:3 30:2 32:2 34:1 35:1 37:1 40:4 42:2 44:1 46:2 47:1 49:2 50:1 51:1 58:1 61:1 64:1 68:1 75:1 82:1 86:2 87:1 90:1 109:1 124:2 130:1 134:1 142:4 146:1 154:1 169:2 171:1 175:1 176:1 177:2 186:1 190:1 192:2 195:1 202:1 223:1 232:1 234:1 241:1 274:1 313:2 385:1 388:1 444:2 499:1 522:1 527:2 544:1 596:2 602:1 603:5 625:2 650:1 674:3 706:4 750:2 810:1 827:1 830:1 834:2 837:1 857:1 873:4 881:1 911:1 933:3 950:2 
-0.01144186359255715 1:2 2:4 3:3 4:3 5:1 6:7 8:2 9:1 10:7 11:1 12:3 15:3 18:1 19:1 20:1 21:2 22:2 24:2 25:1 27:1 28:3 29:1 30:2 32:1 33:1 34:1 37:1 42:1 46:1 48:2 53:1 58:1 60:2 66:2 69:1 78:1 82:1 95:2 100:1 101:1 108:1 109:1 133:2 140:1 158:1 163:1 169:1 186:1 188:2 215:1 227:1 256:1 262:1 299:1 499:1 632:1 702:2 733:1 735:1 820:2 968:1 
-0.005143326090486111 1:1 3:1 4:1 6:1 9:1 12:1 18:2 23:1 32:1 34:1 41:1 44:1 53:1 102:1 137:1 189:1 499:1 585:1 668:1 773:1 775:1 965:2 
-0.0004265138674134238 1:8 2:3 3:4 4:4 5:3 6:3 8:1 9:1 11:1 12:1 13:2 14:2 17:1 21:1 23:2 26:2 30:3 34:1 37:1 39:2 41:1 46:3 47:1 51:1 65:5 71:1 80:1 82:1 91:1 119:1 121:1 143:2 146:1 151:2 153:1 155:2 163:1 170:1 180:1 190:1 199:1 205:1 223:1 224:1 252:1 312:1 318:1 333:1 366:1 375:2 466:1 499:1 568:1 747:2 780:1 902:2 
-0.001120007382806117 1:10 2:12 3:3 5:7 6:1 7:3 9:4 10:2 11:7 12:2 13:2 14:2 16:2 18:2 20:1 21:1 25:10 26:1 29:2 30:1 31:2 32:1 33:2 34:1 35:1 37:3 39:1 40:1 41:1 44:1 45:1 47:3 49:3 54:1 56:1 67:1 73:1 75:1 80:2 83:2 85:1 87:2 88:4 89:1 90:2 95:1 99:1 101:1 102:1 103:1 110:1 118:2 130:1 138:1 144:2 146:1 148:1 169:1 171:6 175:1 177:1 249:1 305:6 336:1 356:2 433:2 499:1 566:3 679:1 770:1 820:1 837:1 895:1 896:1 984:1 
-0.0001201399210755644 1:2 2:1 4:2 5:2 9:2 12:2 14:2 17:1 18:1 19:1 24:2 25:2 31:1 34:1 51:1 60:2 96:2 105:1 126:1 149:2 181:2 201:2 213:1 281:1 294:3 317:2 343:2 386:2 387:2 391:2 499:1 657:1 843:2 927:2 
-0.01317907593176075 1:4 2:3 4:4 5:6 6:2 7:1 8:1 11:4 12:2 16:4 17:1 24:1 26:1 27:3 30:2 34:1 37:2 39:1 41:1 42:1 43:1 48:1 49:1 50:1 63:1 64:2 67:2 68:2 73:1 75:2 82:1 84:1 89:1 90:1 103:1 104:1 112:1 128:1 139:1 167:1 223:1 234:1 235:1 241:2 272:1 284:2 478:2 499:1 515:1 540:1 601:1 653:1 802:2 892:1 946:1 953:2 
-0.0001639702230818017 1:5 2:7 3:5 4:5 5:1 6:4 8:6 9:2 10:1 11:3 12:1 14:1 17:3 18:1 19:3 20:2 23:4 24:1 25:2 26:1 27:3 29:1 30:1 33:1 34:1 37:1 40:2 41:1 44:1 46:1 48:2 50:1 54:1 63:1 64:2 73:1 86:2 96:1 100:1 105:1 107:1 122:1 148:1 159:1 169:1 177:1 186:1 208:2 209:2 210:2 224:1 227:2 238:1 245:1 259:1 281:1 321:1 403:1 479:1 489:1 494:1 499:1 512:2 601:1 643:1 653:5 751:2 795:1 802:1 819:2 850:1 881:1 887:1 909:4 
-0.0216446468670582 1:3 2:2 3:2 4:4 5:1 7:3 8:4 14:2 17:1 24:1 25:1 33:1 34:1 40:2 52:4 73:1 98:1 146:1 150:1 185:2 312:3 468:2 499:1 562:2 598:2 689:2 809:2 837:2 838:2 846:2 
-0.00341161560117136 1:9 2:4 3:8 4:6 5:5 6:4 7:3 8:3 9:1 10:1 11:4 13:1 16:5 17:3 18:1 19:3 20:1 30:3 31:1 34:1 36:2 43:3 45:1 48:1 50:1 54:1 60:1 61:3 62:1 74:4 75:1 83:1 87:2 90:1 91:2 103:2 107:1 109:1 110:1 112:1 115:4 119:1 121:1 122:1 125:1 129:2 132:2 140:1 142:2 143:1 144:1 170:1 176:2 205:1 207:4 208:1 234:1 240:1 298:3 353:1 404:3 464:5 499:1 515:1 540:3 684:1 810:3 861:1 935:3 938:2 965:1 970:1 974:2 976:1 980:1 
-0.005432603583685215 1:4 2:3 3:5 4:1 5:1 6:1 7:4 14:1 17:2 18:1 20:1 23:3 24:1 25:1 30:2 33:3 34:1 46:1 53:1 59:1 62:1 65:2 80:2 81:1 82:1 84:2 95:1 96:2 116:1 123:2 128:1 136:2 137:1 151:1 160:2 201:2 276:1 308:2 314:1 316:3 368:1 383:2 487:1 499:1 588:1 589:1 622:2 632:2 719:1 776:2 799:3 845:2 874:2 881:1 927:1 957:3 
-0.00384450912324174 1:6 2:4 3:5 4:4 5:3 6:4 7:1 8:7 9:1 10:5 11:4 12:1 13:1 14:3 15:4 16:4 19:2 21:1 22:3 26:3 30:3 31:1 32:2 33:3 34:1 35:2 36:1 37:2 39:2 40:2 42:3 46:1 48:1 49:1 54:1 61:1 81:1 82:1 83:1 84:3 90:1 91:1 94:2 96:1 106:2 107:3 109:1 118:1 119:1 135:2 161:1 177:2 192:1 193:1 202:1 213:2 234:1 235:2 242:1 252:1 255:2 269:1 272:1 313:1 314:2 322:1 334:2 412:2 426:2 446:2 449:1 460:2 488:1 499:1 567:2 660:2 698:5 775:1 780:1 840:4 907:2 921:1 941:1 
-0.001668657034365186 1:8 2:6 3:9 4:4 5:2 6:4 7:3 9:2 10:2 11:1 12:1 13:3 14:1 18:1 19:1 21:3 23:1 24:1 25:1 26:2 28:1 32:1 34:3 36:1 42:1 46:1 48:1 49:1 55:1 68:2 69:2 70:2 72:1 75:1 80:1 82:1 89:1 95:1 109:1 112:1 117:1 118:2 129:2 130:1 138:1 150:1 156:3 158:1 160:1 161:1 174:1 178:1 186:1 189:1 191:3 195:1 198:2 210:1 234:1 238:1 242:1 266:1 295:1 322:2 339:1 467:1 493:2 499:1 513:1 519:2 540:1 544:1 679:1 710:2 714:2 721:1 729:1 872:3 886:1 898:2 899:1 921:1 943:3 971:2 
-0.004581314273519293 1:3 2:6 3:5 7:3 9:1 10:2 13:1 15:5 18:1 21:2 22:3 33:2 34:1 36:2 41:1 42:1 47:1 53:1 57:2 63:1 96:1 101:1 108:1 134:1 135:2 151:1 186:1 202:1 210:1 212:2 214:1 232:1 236:1 256:1 276:1 293:2 330:3 331:1 434:2 499:1 529:2 535:2 562:1 571:2 673:1 719:1 731:1 847:3 954:1 
-0.0004971365339646311 1:6 2:4 3:4 4:3 5:2 6:3 7:1 8:1 9:2 11:1 12:1 13:1 14:2 17:1 19:2 27:1 29:1 32:1 34:1 35:1 36:1 42:1 46:1 54:2 55:1 56:2 63:2 79:5 81:3 90:1 93:1 94:1 121:1 148:1 186:1 195:1 197:1 203:1 242:1 302:3 312:1 430:1 447:1 499:1 513:1 530:2 596:1 622:1 780:2 828:1 829:3 867:2 
-0.006587247218438085 1:7 2:5 3:5 4:5 5:3 6:5 9:3 11:3 12:3 13:3 14:1 16:1 17:1 18:2 19:1 23:3 24:1 25:1 26:2 29:1 30:2 31:1 32:1 33:2 34:1 37:2 43:1 49:1 51:1 55:1 56:1 57:1 60:1 81:1 100:4 113:1 119:1 123:1 124:1 129:1 132:1 143:1 163:1 170:3 182:2 192:1 262:1 367:1 381:2 402:2 407:2 414:1 488:1 499:1 556:1 568:1 655:1 693:1 731:1 742:1 770:2 802:1 825:1 854:2 855:1 881:1 895:2 
-0.00975954291803866 1:7 2:8 3:5 4:5 5:4 6:4 7:5 8:3 9:1 10:2 11:2 16:1 17:3 20:1 21:1 25:2 26:1 27:1 28:2 29:2 30:2 31:1 32:1 33:1 34:1 35:1 36:1 41:1 42:1 44:1 47:2 52:2 54:2 56:1 63:2 65:2 66:1 81:1 90:1 99:1 122:2 126:2 138:1 139:1 150:1 151:1 158:1 159:1 181:3 186:1 192:1 200:1 221:2 230:2 236:1 238:2 250:1 296:2 299:1 303:1 321:1 322:1 359:1 390:1 465:4 499:1 517:1 525:2 596:1 690:1 691:1 718:2 799:1 835:2 865:1 904:3 910:2 919:1 
-0.005643588556405213 1:5 2:5 3:3 4:1 5:5 6:1 7:4 8:2 9:1 10:2 11:4 13:3 16:1 24:2 25:1 30:1 32:2 34:1 35:1 41:1 45:1 47:1 55:1 56:2 62:1 66:2 71:1 84:2 92:1 93:1 98:2 133:1 143:1 170:1 172:1 181:1 182:1 186:1 224:1 295:1 331:1 335:1 395:1 494:1 499:1 544:1 576:1 647:2 731:2 
-0.003461760319401774 1:2 2:1 3:2 4:3 9:1 10:1 13:3 20:2 29:1 32:2 33:1 34:1 41:1 56:1 76:5 84:2 125:2 134:3 153:2 154:1 190:3 220:1 248:6 249:2 253:2 273:3 307:1 423:1 430:3 431:2 499:1 612:3 630:2 645:1 753:2 
-0.006412610994674942 1:9 2:8 3:9 4:5 5:5 6:7 7:2 8:1 9:1 10:3 11:4 12:5 13:3 14:1 15:4 16:4 19:1 20:2 21:1 22:1 24:3 25:2 27:1 28:2 29:5 30:1 31:1 32:1 33:2 34:1 36:1 39:3 40:1 42:1 44:1 47:3 50:1 51:1 53:3 54:1 56:1 60:2 61:1 62:2 63:2 72:2 76:2 80:1 82:1 87:4 88:1 89:1 91:1 92:4 95:1 96:1 100:2 108:3 112:2 113:1 115:1 119:1 120:2 138:1 146:1 149:1 150:2 152:1 153:1 169:1 175:1 191:1 193:1 218:2 220:1 235:1 238:1 243:1 249:1 262:2 299:1 318:1 369:1 370:2 377:1 380:1 430:1 431:1 457:1 478:1 487:1 499:1 526:3 596:1 626:2 673:2 685:1 730:3 733:1 755:1 808:5 825:1 865:8 
-0.01763313281913031 1:11 2:4 3:7 4:4 5:3 6:1 7:2 8:1 9:2 10:2 11:2 12:1 13:3 14:1 17:5 19:2 20:1 21:1 23:2 24:1 25:2 26:1 28:3 29:1 33:1 34:1 36:2 41:2 47:2 49:1 52:1 54:1 55:1 56:2 60:1 66:1 67:1 70:1 85:1 94:1 95:1 96:1 99:1 102:1 108:1 109:1 121:1 133:1 153:1 186:1 189:1 195:1 225:1 228:1 238:2 249:1 275:1 281:1 312:1 315:1 327:1 329:3 335:1 359:1 363:1 499:1 554:1 589:1 591:2 608:1 632:1 705:4 730:1 733:1 775:1 855:1 896:1 
-0.002274723144645838 1:7 2:1 3:5 5:3 6:1 9:1 10:1 12:2 17:3 20:1 21:1 25:1 34:1 36:1 42:1 50:1 55:2 57:1 66:1 74:1 77:1 88:1 91:1 96:1 101:1 124:1 132:1 143:1 154:1 170:1 180:3 182:2 191:3 220:1 228:1 263:2 418:2 499:1 615:2 729:1 734:1 801:1 928:1 965:1 
-0.0007142102837960583 1:5 2:1 3:3 4:7 8:5 9:1 10:5 11:1 12:1 14:1 16:1 17:4 19:2 21:1 24:1 25:2 26:1 28:2 29:1 30:1 33:1 34:1 35:3 37:1 40:1 42:1 43:2 44:2 50:1 54:1 77:1 83:2 84:1 85:1 89:2 116:2 126:1 132:1 147:1 148:1 150:1 158:2 165:1 172:1 176:1 180:1 186:1 188:1 190:1 217:1 224:1 237:2 242:1 250:1 287:1 295:1 299:1 319:1 342:1 385:2 440:3 467:1 471:2 499:1 522:2 541:3 583:2 620:1 625:1 656:2 696:1 740:3 742:2 850:3 911:2 
-0.001493906885057114 1:6 2:8 3:4 4:1 5:2 6:4 7:1 8:2 9:1 10:1 11:1 12:2 17:1 18:4 19:2 21:1 23:1 25:2 26:1 29:3 31:2 34:1 37:3 47:3 48:3 50:1 56:1 75:1 99:2 113:2 141:1 148:1 154:1 225:1 234:1 274:2 281:2 321:1 342:1 441:2 499:1 507:2 637:3 656:1 701:2 723:3 766:3 798:2 820:1 888:1 901:5 915:6 
-0.000495435819373606 1:8 3:2 4:4 5:3 7:2 9:1 10:4 11:3 12:2 15:1 16:2 17:1 18:2 19:1 20:2 21:3 23:2 24:1 27:1 30:1 33:2 34:1 43:3 56:1 58:1 60:1 66:2 75:1 78:1 81:1 92:1 98:1 107:1 108:3 119:1 130:1 143:1 171:2 186:1 188:1 192:1 221:1 250:1 339:1 359:1 461:2 482:1 489:1 499:1 571:1 661:3 734:1 881:2 889:1 947:2 984:1 
-0.01049043189453596 1:6 2:5 3:4 4:8 5:1 7:4 8:2 10:2 12:1 13:2 14:3 15:6 16:1 19:1 22:5 24:2 26:2 29:2 30:1 34:1 35:1 36:1 40:1 41:2 50:1 51:1 56:1 57:1 58:1 73:1 74:4 77:1 89:1 90:1 96:1 99:1 102:1 105:1 113:2 123:1 124:1 127:1 130:1 134:1 158:1 186:1 187:1 212:1 216:1 225:1 240:1 271:1 291:1 299:1 315:2 328:1 330:1 334:1 335:1 367:1 484:1 499:1 735:1 739:6 824:1 857:1 952:2 
-0.01883462622236878 2:1 3:4 4:1 5:3 6:1 9:1 11:1 18:1 21:1 28:1 34:1 61:1 78:1 109:1 117:1 125:1 138:1 151:1 239:2 279:2 315:1 351:2 354:2 395:1 399:2 499:1 830:2 
-0.004223284829524612 1:8 2:2 3:4 4:5 5:4 6:1 7:4 8:2 9:3 10:2 11:1 13:1 14:11 15:5 17:2 18:1 19:1 20:5 21:4 22:3 23:1 24:5 30:1 31:1 34:1 37:1 40:2 41:1 42:1 50:1 54:4 58:1 71:1 72:1 74:2 76:1 77:2 79:2 90:1 96:1 110:2 124:1 127:2 130:1 144:1 151:1 169:1 173:1 186:1 190:1 204:6 205:1 209:1 213:1 225:1 242:1 266:1 284:1 299:1 315:1 370:1 412:1 415:1 458:2 499:1 527:1 548:1 607:1 616:2 625:1 633:1 669:1 722:4 742:1 754:1 755:2 790:1 827:1 900:2 981:2 
